<?xml version="1.0" encoding="UTF-8"?>
<!-- This file was created by ACADEMIC version of SMILE -->
<smile version="1.0" id="Unnamed" numsamples="10000" discsamples="10000">
	<nodes>
		<cpt id="BlackBastaRansomwareOccurred">
			<state id="False" />
			<state id="True" />
			<probabilities>0.5 0.5</probabilities>
		</cpt>
		<cpt id="Phishing_Spearphishing_Attachm_attack_action_a3679838">
			<state id="False" />
			<state id="True" />
			<parents>BlackBastaRansomwareOccurred</parents>
			<probabilities>0.8 0.2 0.09999999999999998 0.9</probabilities>
		</cpt>
		<cpt id="DeobfuscateDecode_Files_or_Inf_attack_action_b2345e48">
			<state id="False" />
			<state id="True" />
			<parents>Phishing_Spearphishing_Attachm_attack_action_a3679838</parents>
			<probabilities>0.8 0.2 0.09999999999999998 0.9</probabilities>
		</cpt>
		<cpt id="User_Execution_Malicious_File_attack_action_e5715d9b">
			<state id="False" />
			<state id="True" />
			<parents>DeobfuscateDecode_Files_or_Inf_attack_action_b2345e48</parents>
			<probabilities>0.8 0.2 0.09999999999999998 0.9</probabilities>
		</cpt>
		<cpt id="Command_and_Scripting_Interpre_attack_action_b681891b">
			<state id="False" />
			<state id="True" />
			<parents>User_Execution_Malicious_File_attack_action_e5715d9b</parents>
			<probabilities>0.8 0.2 0.09999999999999998 0.9</probabilities>
		</cpt>
		<cpt id="Command_and_Scripting_Interpre_attack_action_ec4f8e09">
			<state id="False" />
			<state id="True" />
			<parents>Command_and_Scripting_Interpre_attack_action_b681891b</parents>
			<probabilities>0.8 0.2 0.09999999999999998 0.9</probabilities>
		</cpt>
		<cpt id="Hijack_Execution_Flow_DLL_Sear_attack_action_c94bdb43">
			<state id="False" />
			<state id="True" />
			<parents>Command_and_Scripting_Interpre_attack_action_ec4f8e09</parents>
			<probabilities>0.8 0.2 0.09999999999999998 0.9</probabilities>
		</cpt>
		<cpt id="System_Binary_Proxy_Execution__attack_action_9f5746cd">
			<state id="False" />
			<state id="True" />
			<parents>Hijack_Execution_Flow_DLL_Sear_attack_action_c94bdb43</parents>
			<probabilities>0.8 0.2 0.09999999999999998 0.9</probabilities>
		</cpt>
		<cpt id="Create_Account_attack_action_d88229be">
			<state id="False" />
			<state id="True" />
			<parents>System_Binary_Proxy_Execution__attack_action_9f5746cd</parents>
			<probabilities>0.8 0.2 0.09999999999999998 0.9</probabilities>
		</cpt>
		<cpt id="Domain_Policy_Modification_Gro_attack_action_1ab99f8c">
			<state id="False" />
			<state id="True" />
			<parents>Create_Account_attack_action_d88229be</parents>
			<probabilities>0.8 0.2 0.09999999999999998 0.9</probabilities>
		</cpt>
		<cpt id="Account_Manipulation_attack_action_599cf0b7">
			<state id="False" />
			<state id="True" />
			<parents>Domain_Policy_Modification_Gro_attack_action_1ab99f8c</parents>
			<probabilities>0.8 0.2 0.09999999999999998 0.9</probabilities>
		</cpt>
		<cpt id="Create_or_Modify_System_Proces_attack_action_a33a2a3b">
			<state id="False" />
			<state id="True" />
			<parents>System_Binary_Proxy_Execution__attack_action_9f5746cd</parents>
			<probabilities>0.8 0.2 0.09999999999999998 0.9</probabilities>
		</cpt>
		<cpt id="attack_operator_14c72b05_5f68__attack_operator_14c72b05">
			<state id="False" />
			<state id="True" />
			<parents>Account_Manipulation_attack_action_599cf0b7 Create_or_Modify_System_Proces_attack_action_a33a2a3b</parents>
			<probabilities>0.8 0.2 0.09999999999999998 0.9 0.09999999999999998 0.9 0.09999999999999998 0.9</probabilities>
		</cpt>
	</nodes>
	<extensions>
		<genie version="1.0" app="SMILE_ACADEMIC 2.4.0@070aab1774fd" name="Unnamed">
			<node id="BlackBastaRansomwareOccurred">
				<name>BlackBastaRansomwareOccurred</name>
				<interior color="e5f6f7" />
				<outline color="0000bb" />
				<font color="000000" name="MS Sans Serif" size="8" />
				<position>-38 -18 38 18</position>
			</node>
			<node id="Phishing_Spearphishing_Attachm_attack_action_a3679838">
				<name>Phishing_Spearphishing_Attachm_attack_action_a3679838</name>
				<interior color="e5f6f7" />
				<outline color="0000bb" />
				<font color="000000" name="MS Sans Serif" size="8" />
				<position>-38 -18 38 18</position>
			</node>
			<node id="DeobfuscateDecode_Files_or_Inf_attack_action_b2345e48">
				<name>DeobfuscateDecode_Files_or_Inf_attack_action_b2345e48</name>
				<interior color="e5f6f7" />
				<outline color="0000bb" />
				<font color="000000" name="MS Sans Serif" size="8" />
				<position>-38 -18 38 18</position>
			</node>
			<node id="User_Execution_Malicious_File_attack_action_e5715d9b">
				<name>User_Execution_Malicious_File_attack_action_e5715d9b</name>
				<interior color="e5f6f7" />
				<outline color="0000bb" />
				<font color="000000" name="MS Sans Serif" size="8" />
				<position>-38 -18 38 18</position>
			</node>
			<node id="Command_and_Scripting_Interpre_attack_action_b681891b">
				<name>Command_and_Scripting_Interpre_attack_action_b681891b</name>
				<interior color="e5f6f7" />
				<outline color="0000bb" />
				<font color="000000" name="MS Sans Serif" size="8" />
				<position>-38 -18 38 18</position>
			</node>
			<node id="Command_and_Scripting_Interpre_attack_action_ec4f8e09">
				<name>Command_and_Scripting_Interpre_attack_action_ec4f8e09</name>
				<interior color="e5f6f7" />
				<outline color="0000bb" />
				<font color="000000" name="MS Sans Serif" size="8" />
				<position>-38 -18 38 18</position>
			</node>
			<node id="Hijack_Execution_Flow_DLL_Sear_attack_action_c94bdb43">
				<name>Hijack_Execution_Flow_DLL_Sear_attack_action_c94bdb43</name>
				<interior color="e5f6f7" />
				<outline color="0000bb" />
				<font color="000000" name="MS Sans Serif" size="8" />
				<position>-38 -18 38 18</position>
			</node>
			<node id="System_Binary_Proxy_Execution__attack_action_9f5746cd">
				<name>System_Binary_Proxy_Execution__attack_action_9f5746cd</name>
				<interior color="e5f6f7" />
				<outline color="0000bb" />
				<font color="000000" name="MS Sans Serif" size="8" />
				<position>-38 -18 38 18</position>
			</node>
			<node id="Create_Account_attack_action_d88229be">
				<name>Create_Account_attack_action_d88229be</name>
				<interior color="e5f6f7" />
				<outline color="0000bb" />
				<font color="000000" name="MS Sans Serif" size="8" />
				<position>-38 -18 38 18</position>
			</node>
			<node id="Domain_Policy_Modification_Gro_attack_action_1ab99f8c">
				<name>Domain_Policy_Modification_Gro_attack_action_1ab99f8c</name>
				<interior color="e5f6f7" />
				<outline color="0000bb" />
				<font color="000000" name="MS Sans Serif" size="8" />
				<position>-38 -18 38 18</position>
			</node>
			<node id="Account_Manipulation_attack_action_599cf0b7">
				<name>Account_Manipulation_attack_action_599cf0b7</name>
				<interior color="e5f6f7" />
				<outline color="0000bb" />
				<font color="000000" name="MS Sans Serif" size="8" />
				<position>-38 -18 38 18</position>
			</node>
			<node id="attack_operator_14c72b05_5f68__attack_operator_14c72b05">
				<name>attack_operator_14c72b05_5f68__attack_operator_14c72b05</name>
				<interior color="e5f6f7" />
				<outline color="0000bb" />
				<font color="000000" name="MS Sans Serif" size="8" />
				<position>-38 -18 38 18</position>
			</node>
			<node id="Create_or_Modify_System_Proces_attack_action_a33a2a3b">
				<name>Create_or_Modify_System_Proces_attack_action_a33a2a3b</name>
				<interior color="e5f6f7" />
				<outline color="0000bb" />
				<font color="000000" name="MS Sans Serif" size="8" />
				<position>-38 -18 38 18</position>
			</node>
		</genie>
	</extensions>
</smile>
