<?xml version="1.0" encoding="UTF-8"?>
<!-- This file was created by ACADEMIC version of SMILE -->
<smile version="1.0" id="Unnamed" numsamples="10000" discsamples="10000">
	<nodes>
		<cpt id="CISAIranianAPTOccurred">
			<state id="False" />
			<state id="True" />
			<probabilities>0.5 0.5</probabilities>
		</cpt>
		<cpt id="Exploit_Public_Facing_Applicat_attack_action_b6143619">
			<state id="False" />
			<state id="True" />
			<parents>CISAIranianAPTOccurred</parents>
			<probabilities>0.8 0.2 0.09999999999999998 0.9</probabilities>
		</cpt>
		<cpt id="PowerShell_attack_action_0d573bcd">
			<state id="False" />
			<state id="True" />
			<parents>Exploit_Public_Facing_Applicat_attack_action_b6143619</parents>
			<probabilities>0.8 0.2 0.09999999999999998 0.9</probabilities>
		</cpt>
		<cpt id="Disable_or_Modify_Tools_attack_action_56ca6034">
			<state id="False" />
			<state id="True" />
			<parents>PowerShell_attack_action_0d573bcd</parents>
			<probabilities>0.8 0.2 0.09999999999999998 0.9</probabilities>
		</cpt>
		<cpt id="Ingress_Tool_Transfer_attack_action_cfae690b">
			<state id="False" />
			<state id="True" />
			<parents>Disable_or_Modify_Tools_attack_action_56ca6034</parents>
			<probabilities>0.8 0.2 0.09999999999999998 0.9</probabilities>
		</cpt>
		<cpt id="Ingress_Tool_Transfer_attack_action_3fbadab6">
			<state id="False" />
			<state id="True" />
			<parents>Ingress_Tool_Transfer_attack_action_cfae690b</parents>
			<probabilities>0.8 0.2 0.09999999999999998 0.9</probabilities>
		</cpt>
		<cpt id="File_Deletion_attack_action_9c30cd6b">
			<state id="False" />
			<state id="True" />
			<parents>Ingress_Tool_Transfer_attack_action_3fbadab6</parents>
			<probabilities>0.8 0.2 0.09999999999999998 0.9</probabilities>
		</cpt>
		<cpt id="Local_Account_attack_action_857eaaa1">
			<state id="False" />
			<state id="True" />
			<parents>File_Deletion_attack_action_9c30cd6b</parents>
			<probabilities>0.8 0.2 0.09999999999999998 0.9</probabilities>
		</cpt>
		<cpt id="Internet_Connection_Discovery_attack_action_69978025">
			<state id="False" />
			<state id="True" />
			<parents>Local_Account_attack_action_857eaaa1</parents>
			<probabilities>0.8 0.2 0.09999999999999998 0.9</probabilities>
		</cpt>
		<cpt id="Scheduled_Task_attack_action_de68b787">
			<state id="False" />
			<state id="True" />
			<parents>Internet_Connection_Discovery_attack_action_69978025</parents>
			<probabilities>0.8 0.2 0.09999999999999998 0.9</probabilities>
		</cpt>
		<cpt id="Remote_Desktop_Protocol_attack_action_f8daeaa9">
			<state id="False" />
			<state id="True" />
			<parents>Scheduled_Task_attack_action_de68b787</parents>
			<probabilities>0.8 0.2 0.09999999999999998 0.9</probabilities>
		</cpt>
		<cpt id="Default_Accounts_attack_action_57e36a89">
			<state id="False" />
			<state id="True" />
			<parents>Remote_Desktop_Protocol_attack_action_f8daeaa9</parents>
			<probabilities>0.8 0.2 0.09999999999999998 0.9</probabilities>
		</cpt>
		<cpt id="Lateral_Movement_attack_action_c55d72d0">
			<state id="False" />
			<state id="True" />
			<parents>Default_Accounts_attack_action_57e36a89</parents>
			<probabilities>0.8 0.2 0.09999999999999998 0.9</probabilities>
		</cpt>
		<cpt id="Ingress_Tool_Transfer_attack_action_0606c44c">
			<state id="False" />
			<state id="True" />
			<parents>Lateral_Movement_attack_action_c55d72d0</parents>
			<probabilities>0.8 0.2 0.09999999999999998 0.9</probabilities>
		</cpt>
		<cpt id="Domain_Account_attack_action_d8ba9c2f">
			<state id="False" />
			<state id="True" />
			<parents>Ingress_Tool_Transfer_attack_action_0606c44c</parents>
			<probabilities>0.8 0.2 0.09999999999999998 0.9</probabilities>
		</cpt>
		<cpt id="Remote_Desktop_Protocol_attack_action_52069465">
			<state id="False" />
			<state id="True" />
			<parents>Domain_Account_attack_action_d8ba9c2f</parents>
			<probabilities>0.8 0.2 0.09999999999999998 0.9</probabilities>
		</cpt>
		<cpt id="Disable_or_Modify_Tools_attack_action_1d283005">
			<state id="False" />
			<state id="True" />
			<parents>Remote_Desktop_Protocol_attack_action_52069465</parents>
			<probabilities>0.8 0.2 0.09999999999999998 0.9</probabilities>
		</cpt>
		<cpt id="Lateral_Tool_Transfer_attack_action_ee829570">
			<state id="False" />
			<state id="True" />
			<parents>Disable_or_Modify_Tools_attack_action_1d283005</parents>
			<probabilities>0.8 0.2 0.09999999999999998 0.9</probabilities>
		</cpt>
		<cpt id="Proxy_attack_action_4beb5555">
			<state id="False" />
			<state id="True" />
			<parents>Lateral_Tool_Transfer_attack_action_ee829570</parents>
			<probabilities>0.8 0.2 0.09999999999999998 0.9</probabilities>
		</cpt>
		<cpt id="Remote_Desktop_Protocol_attack_action_7e2175b8">
			<state id="False" />
			<state id="True" />
			<parents>Proxy_attack_action_4beb5555</parents>
			<probabilities>0.8 0.2 0.09999999999999998 0.9</probabilities>
		</cpt>
		<cpt id="PowerShell_attack_action_2f9114f6">
			<state id="False" />
			<state id="True" />
			<parents>Remote_Desktop_Protocol_attack_action_7e2175b8</parents>
			<probabilities>0.8 0.2 0.09999999999999998 0.9</probabilities>
		</cpt>
		<cpt id="Remote_System_Discovery_attack_action_45e8b0a1">
			<state id="False" />
			<state id="True" />
			<parents>PowerShell_attack_action_2f9114f6</parents>
			<probabilities>0.8 0.2 0.09999999999999998 0.9</probabilities>
		</cpt>
		<cpt id="Account_Manipulation_attack_action_792aaa39">
			<state id="False" />
			<state id="True" />
			<parents>Remote_System_Discovery_attack_action_45e8b0a1</parents>
			<probabilities>0.8 0.2 0.09999999999999998 0.9</probabilities>
		</cpt>
		<cpt id="LSASS_Memory_attack_action_99406b0d">
			<state id="False" />
			<state id="True" />
			<parents>Account_Manipulation_attack_action_792aaa39</parents>
			<probabilities>0.8 0.2 0.09999999999999998 0.9</probabilities>
		</cpt>
	</nodes>
	<extensions>
		<genie version="1.0" app="SMILE_ACADEMIC 2.4.0@070aab1774fd" name="Unnamed">
			<node id="CISAIranianAPTOccurred">
				<name>CISAIranianAPTOccurred</name>
				<interior color="e5f6f7" />
				<outline color="0000bb" />
				<font color="000000" name="MS Sans Serif" size="8" />
				<position>-38 -18 38 18</position>
			</node>
			<node id="Exploit_Public_Facing_Applicat_attack_action_b6143619">
				<name>Exploit_Public_Facing_Applicat_attack_action_b6143619</name>
				<interior color="e5f6f7" />
				<outline color="0000bb" />
				<font color="000000" name="MS Sans Serif" size="8" />
				<position>-38 -18 38 18</position>
			</node>
			<node id="PowerShell_attack_action_0d573bcd">
				<name>PowerShell_attack_action_0d573bcd</name>
				<interior color="e5f6f7" />
				<outline color="0000bb" />
				<font color="000000" name="MS Sans Serif" size="8" />
				<position>-38 -18 38 18</position>
			</node>
			<node id="Disable_or_Modify_Tools_attack_action_56ca6034">
				<name>Disable_or_Modify_Tools_attack_action_56ca6034</name>
				<interior color="e5f6f7" />
				<outline color="0000bb" />
				<font color="000000" name="MS Sans Serif" size="8" />
				<position>-38 -18 38 18</position>
			</node>
			<node id="Ingress_Tool_Transfer_attack_action_cfae690b">
				<name>Ingress_Tool_Transfer_attack_action_cfae690b</name>
				<interior color="e5f6f7" />
				<outline color="0000bb" />
				<font color="000000" name="MS Sans Serif" size="8" />
				<position>-38 -18 38 18</position>
			</node>
			<node id="Ingress_Tool_Transfer_attack_action_3fbadab6">
				<name>Ingress_Tool_Transfer_attack_action_3fbadab6</name>
				<interior color="e5f6f7" />
				<outline color="0000bb" />
				<font color="000000" name="MS Sans Serif" size="8" />
				<position>-38 -18 38 18</position>
			</node>
			<node id="File_Deletion_attack_action_9c30cd6b">
				<name>File_Deletion_attack_action_9c30cd6b</name>
				<interior color="e5f6f7" />
				<outline color="0000bb" />
				<font color="000000" name="MS Sans Serif" size="8" />
				<position>-38 -18 38 18</position>
			</node>
			<node id="Local_Account_attack_action_857eaaa1">
				<name>Local_Account_attack_action_857eaaa1</name>
				<interior color="e5f6f7" />
				<outline color="0000bb" />
				<font color="000000" name="MS Sans Serif" size="8" />
				<position>-38 -18 38 18</position>
			</node>
			<node id="Internet_Connection_Discovery_attack_action_69978025">
				<name>Internet_Connection_Discovery_attack_action_69978025</name>
				<interior color="e5f6f7" />
				<outline color="0000bb" />
				<font color="000000" name="MS Sans Serif" size="8" />
				<position>-38 -18 38 18</position>
			</node>
			<node id="Scheduled_Task_attack_action_de68b787">
				<name>Scheduled_Task_attack_action_de68b787</name>
				<interior color="e5f6f7" />
				<outline color="0000bb" />
				<font color="000000" name="MS Sans Serif" size="8" />
				<position>-38 -18 38 18</position>
			</node>
			<node id="Remote_Desktop_Protocol_attack_action_f8daeaa9">
				<name>Remote_Desktop_Protocol_attack_action_f8daeaa9</name>
				<interior color="e5f6f7" />
				<outline color="0000bb" />
				<font color="000000" name="MS Sans Serif" size="8" />
				<position>-38 -18 38 18</position>
			</node>
			<node id="Default_Accounts_attack_action_57e36a89">
				<name>Default_Accounts_attack_action_57e36a89</name>
				<interior color="e5f6f7" />
				<outline color="0000bb" />
				<font color="000000" name="MS Sans Serif" size="8" />
				<position>-38 -18 38 18</position>
			</node>
			<node id="Lateral_Movement_attack_action_c55d72d0">
				<name>Lateral_Movement_attack_action_c55d72d0</name>
				<interior color="e5f6f7" />
				<outline color="0000bb" />
				<font color="000000" name="MS Sans Serif" size="8" />
				<position>-38 -18 38 18</position>
			</node>
			<node id="Ingress_Tool_Transfer_attack_action_0606c44c">
				<name>Ingress_Tool_Transfer_attack_action_0606c44c</name>
				<interior color="e5f6f7" />
				<outline color="0000bb" />
				<font color="000000" name="MS Sans Serif" size="8" />
				<position>-38 -18 38 18</position>
			</node>
			<node id="Domain_Account_attack_action_d8ba9c2f">
				<name>Domain_Account_attack_action_d8ba9c2f</name>
				<interior color="e5f6f7" />
				<outline color="0000bb" />
				<font color="000000" name="MS Sans Serif" size="8" />
				<position>-38 -18 38 18</position>
			</node>
			<node id="Remote_Desktop_Protocol_attack_action_52069465">
				<name>Remote_Desktop_Protocol_attack_action_52069465</name>
				<interior color="e5f6f7" />
				<outline color="0000bb" />
				<font color="000000" name="MS Sans Serif" size="8" />
				<position>-38 -18 38 18</position>
			</node>
			<node id="Disable_or_Modify_Tools_attack_action_1d283005">
				<name>Disable_or_Modify_Tools_attack_action_1d283005</name>
				<interior color="e5f6f7" />
				<outline color="0000bb" />
				<font color="000000" name="MS Sans Serif" size="8" />
				<position>-38 -18 38 18</position>
			</node>
			<node id="Lateral_Tool_Transfer_attack_action_ee829570">
				<name>Lateral_Tool_Transfer_attack_action_ee829570</name>
				<interior color="e5f6f7" />
				<outline color="0000bb" />
				<font color="000000" name="MS Sans Serif" size="8" />
				<position>-38 -18 38 18</position>
			</node>
			<node id="Proxy_attack_action_4beb5555">
				<name>Proxy_attack_action_4beb5555</name>
				<interior color="e5f6f7" />
				<outline color="0000bb" />
				<font color="000000" name="MS Sans Serif" size="8" />
				<position>-38 -18 38 18</position>
			</node>
			<node id="Remote_Desktop_Protocol_attack_action_7e2175b8">
				<name>Remote_Desktop_Protocol_attack_action_7e2175b8</name>
				<interior color="e5f6f7" />
				<outline color="0000bb" />
				<font color="000000" name="MS Sans Serif" size="8" />
				<position>-38 -18 38 18</position>
			</node>
			<node id="PowerShell_attack_action_2f9114f6">
				<name>PowerShell_attack_action_2f9114f6</name>
				<interior color="e5f6f7" />
				<outline color="0000bb" />
				<font color="000000" name="MS Sans Serif" size="8" />
				<position>-38 -18 38 18</position>
			</node>
			<node id="Remote_System_Discovery_attack_action_45e8b0a1">
				<name>Remote_System_Discovery_attack_action_45e8b0a1</name>
				<interior color="e5f6f7" />
				<outline color="0000bb" />
				<font color="000000" name="MS Sans Serif" size="8" />
				<position>-38 -18 38 18</position>
			</node>
			<node id="Account_Manipulation_attack_action_792aaa39">
				<name>Account_Manipulation_attack_action_792aaa39</name>
				<interior color="e5f6f7" />
				<outline color="0000bb" />
				<font color="000000" name="MS Sans Serif" size="8" />
				<position>-38 -18 38 18</position>
			</node>
			<node id="LSASS_Memory_attack_action_99406b0d">
				<name>LSASS_Memory_attack_action_99406b0d</name>
				<interior color="e5f6f7" />
				<outline color="0000bb" />
				<font color="000000" name="MS Sans Serif" size="8" />
				<position>-38 -18 38 18</position>
			</node>
		</genie>
	</extensions>
</smile>
