<?xml version="1.0" encoding="UTF-8"?>
<!-- This file was created by ACADEMIC version of SMILE -->
<smile version="1.0" id="Unnamed" numsamples="10000" discsamples="10000">
	<nodes>
		<cpt id="ExampleAttackTreeOccurred">
			<state id="False" />
			<state id="True" />
			<probabilities>0.5 0.5</probabilities>
		</cpt>
		<cpt id="Purchase_Dataset_Containing_Us_attack_action_32234997">
			<state id="False" />
			<state id="True" />
			<parents>ExampleAttackTreeOccurred</parents>
			<probabilities>0.8 0.2 0.09999999999999998 0.9</probabilities>
		</cpt>
		<cpt id="Find_a_Free_Copy_of_the_Datase_attack_action_2d7c7f99">
			<state id="False" />
			<state id="True" />
			<parents>ExampleAttackTreeOccurred</parents>
			<probabilities>0.8 0.2 0.09999999999999998 0.9</probabilities>
		</cpt>
		<cpt id="attack_operator_55c18a7c_69a0__attack_operator_55c18a7c">
			<state id="False" />
			<state id="True" />
			<parents>Purchase_Dataset_Containing_Us_attack_action_32234997 Find_a_Free_Copy_of_the_Datase_attack_action_2d7c7f99</parents>
			<probabilities>0.8 0.2 0.09999999999999998 0.9 0.09999999999999998 0.9 0.09999999999999998 0.9</probabilities>
		</cpt>
		<cpt id="Synthesize_Known_User_Data_and_attack_action_ba3f0f10">
			<state id="False" />
			<state id="True" />
			<parents>ExampleAttackTreeOccurred</parents>
			<probabilities>0.8 0.2 0.09999999999999998 0.9</probabilities>
		</cpt>
		<cpt id="Compile_Known_User_Data_attack_action_2867ece0">
			<state id="False" />
			<state id="True" />
			<parents>ExampleAttackTreeOccurred</parents>
			<probabilities>0.8 0.2 0.09999999999999998 0.9</probabilities>
		</cpt>
		<cpt id="attack_operator_7cf24d0d_f1bf__attack_operator_7cf24d0d">
			<state id="False" />
			<state id="True" />
			<parents>Synthesize_Known_User_Data_and_attack_action_ba3f0f10 Compile_Known_User_Data_attack_action_2867ece0</parents>
			<probabilities>0.8 0.2 0.09999999999999998 0.9 0.09999999999999998 0.9 0.09999999999999998 0.9</probabilities>
		</cpt>
		<cpt id="Acquire_User_Credentials_From__attack_action_d3a9b4b8">
			<state id="False" />
			<state id="True" />
			<parents>ExampleAttackTreeOccurred</parents>
			<probabilities>0.8 0.2 0.09999999999999998 0.9</probabilities>
		</cpt>
		<cpt id="Purchase_User_Credentials_attack_action_4fab276c">
			<state id="False" />
			<state id="True" />
			<parents>ExampleAttackTreeOccurred</parents>
			<probabilities>0.8 0.2 0.09999999999999998 0.9</probabilities>
		</cpt>
		<cpt id="attack_operator_92eb629c_d257__attack_operator_92eb629c">
			<state id="False" />
			<state id="True" />
			<parents>Acquire_User_Credentials_From__attack_action_d3a9b4b8 Purchase_User_Credentials_attack_action_4fab276c</parents>
			<probabilities>0.8 0.2 0.09999999999999998 0.9 0.09999999999999998 0.9 0.09999999999999998 0.9</probabilities>
		</cpt>
		<cpt id="Record_User_Login_Information_attack_action_e5f3487d">
			<state id="False" />
			<state id="True" />
			<parents>ExampleAttackTreeOccurred</parents>
			<probabilities>0.8 0.2 0.09999999999999998 0.9</probabilities>
		</cpt>
		<cpt id="attack_operator_bb5ec01a_10e9__attack_operator_bb5ec01a">
			<state id="False" />
			<state id="True" />
			<parents>Record_User_Login_Information_attack_action_e5f3487d</parents>
			<probabilities>0.8 0.2 0.09999999999999998 0.9</probabilities>
		</cpt>
		<cpt id="Prompt_User_for_Login_Informat_attack_action_eda0131b">
			<state id="False" />
			<state id="True" />
			<parents>ExampleAttackTreeOccurred</parents>
			<probabilities>0.8 0.2 0.09999999999999998 0.9</probabilities>
		</cpt>
		<cpt id="attack_operator_567d1a9c_069b__attack_operator_567d1a9c">
			<state id="False" />
			<state id="True" />
			<parents>Prompt_User_for_Login_Informat_attack_action_eda0131b</parents>
			<probabilities>0.8 0.2 0.09999999999999998 0.9</probabilities>
		</cpt>
		<cpt id="User_Interacts_With_Malicious__attack_action_f6e15450">
			<state id="False" />
			<state id="True" />
			<parents>ExampleAttackTreeOccurred</parents>
			<probabilities>0.8 0.2 0.09999999999999998 0.9</probabilities>
		</cpt>
		<cpt id="attack_operator_212e23fe_c04f__attack_operator_212e23fe">
			<state id="False" />
			<state id="True" />
			<parents>User_Interacts_With_Malicious__attack_action_f6e15450</parents>
			<probabilities>0.8 0.2 0.09999999999999998 0.9</probabilities>
		</cpt>
		<cpt id="Determine_Approximate_Location_attack_action_89bfd82d">
			<state id="False" />
			<state id="True" />
			<parents>ExampleAttackTreeOccurred</parents>
			<probabilities>0.8 0.2 0.09999999999999998 0.9</probabilities>
		</cpt>
		<cpt id="attack_operator_e51fb8f0_ee0f__attack_operator_e51fb8f0">
			<state id="False" />
			<state id="True" />
			<parents>Determine_Approximate_Location_attack_action_89bfd82d</parents>
			<probabilities>0.8 0.2 0.09999999999999998 0.9</probabilities>
		</cpt>
		<cpt id="Learn_Tracker_Serial_Number_attack_action_84217add">
			<state id="False" />
			<state id="True" />
			<parents>ExampleAttackTreeOccurred</parents>
			<probabilities>0.8 0.2 0.09999999999999998 0.9</probabilities>
		</cpt>
		<cpt id="attack_operator_e8cff81f_61a2__attack_operator_e8cff81f">
			<state id="False" />
			<state id="True" />
			<parents>Learn_Tracker_Serial_Number_attack_action_84217add</parents>
			<probabilities>0.8 0.2 0.09999999999999998 0.9</probabilities>
		</cpt>
		<cpt id="Eavesdrop_on_Device_Communicat_attack_action_6bdf557c">
			<state id="False" />
			<state id="True" />
			<parents>ExampleAttackTreeOccurred</parents>
			<probabilities>0.8 0.2 0.09999999999999998 0.9</probabilities>
		</cpt>
		<cpt id="Get_Within_Wireless_Range_of_t_attack_action_8df074e4">
			<state id="False" />
			<state id="True" />
			<parents>ExampleAttackTreeOccurred</parents>
			<probabilities>0.8 0.2 0.09999999999999998 0.9</probabilities>
		</cpt>
		<cpt id="attack_operator_bab5422f_0bdb__attack_operator_bab5422f">
			<state id="False" />
			<state id="True" />
			<parents>Eavesdrop_on_Device_Communicat_attack_action_6bdf557c Get_Within_Wireless_Range_of_t_attack_action_8df074e4</parents>
			<probabilities>0.8 0.2 0.09999999999999998 0.9 0.09999999999999998 0.9 0.09999999999999998 0.9</probabilities>
		</cpt>
		<cpt id="Configure_an_Alternative_Serve_attack_action_e5ddaf28">
			<state id="False" />
			<state id="True" />
			<parents>ExampleAttackTreeOccurred</parents>
			<probabilities>0.8 0.2 0.09999999999999998 0.9</probabilities>
		</cpt>
		<cpt id="Associate_Tracker_With_a_Contr_attack_action_8f7c3f72">
			<state id="False" />
			<state id="True" />
			<parents>ExampleAttackTreeOccurred</parents>
			<probabilities>0.8 0.2 0.09999999999999998 0.9</probabilities>
		</cpt>
		<cpt id="attack_operator_47cbb476_bb10__attack_operator_47cbb476">
			<state id="False" />
			<state id="True" />
			<parents>Configure_an_Alternative_Serve_attack_action_e5ddaf28 Associate_Tracker_With_a_Contr_attack_action_8f7c3f72</parents>
			<probabilities>0.8 0.2 0.09999999999999998 0.9 0.09999999999999998 0.9 0.09999999999999998 0.9</probabilities>
		</cpt>
		<cpt id="Replay_Authentication_Sequence_attack_action_6bd52eec">
			<state id="False" />
			<state id="True" />
			<parents>ExampleAttackTreeOccurred</parents>
			<probabilities>0.8 0.2 0.09999999999999998 0.9</probabilities>
		</cpt>
		<cpt id="attack_operator_70120336_4ff9__attack_operator_70120336">
			<state id="False" />
			<state id="True" />
			<parents>Replay_Authentication_Sequence_attack_action_6bd52eec</parents>
			<probabilities>0.8 0.2 0.09999999999999998 0.9</probabilities>
		</cpt>
		<cpt id="Get_Within_Wireless_Range_of_t_attack_action_9cf8b16c">
			<state id="False" />
			<state id="True" />
			<parents>ExampleAttackTreeOccurred</parents>
			<probabilities>0.8 0.2 0.09999999999999998 0.9</probabilities>
		</cpt>
		<cpt id="attack_operator_c20eb04a_ffa7__attack_operator_c20eb04a">
			<state id="False" />
			<state id="True" />
			<parents>Get_Within_Wireless_Range_of_t_attack_action_9cf8b16c</parents>
			<probabilities>0.8 0.2 0.09999999999999998 0.9</probabilities>
		</cpt>
		<cpt id="Associate_Data_with_Unique_Dev_attack_action_2af74e9a">
			<state id="False" />
			<state id="True" />
			<parents>ExampleAttackTreeOccurred</parents>
			<probabilities>0.8 0.2 0.09999999999999998 0.9</probabilities>
		</cpt>
		<cpt id="attack_operator_a8c00ec1_1a8d__attack_operator_a8c00ec1">
			<state id="False" />
			<state id="True" />
			<parents>Associate_Data_with_Unique_Dev_attack_action_2af74e9a</parents>
			<probabilities>0.8 0.2 0.09999999999999998 0.9</probabilities>
		</cpt>
		<cpt id="Trigger_Synchronization_Over_B_attack_action_8f2b5ae8">
			<state id="False" />
			<state id="True" />
			<parents>ExampleAttackTreeOccurred</parents>
			<probabilities>0.8 0.2 0.09999999999999998 0.9</probabilities>
		</cpt>
		<cpt id="attack_operator_bd09a07e_82f1__attack_operator_bd09a07e">
			<state id="False" />
			<state id="True" />
			<parents>Trigger_Synchronization_Over_B_attack_action_8f2b5ae8</parents>
			<probabilities>0.8 0.2 0.09999999999999998 0.9</probabilities>
		</cpt>
		<cpt id="Local_Data_is_Encrypted_attack_action_0f3f233c">
			<state id="False" />
			<state id="True" />
			<parents>ExampleAttackTreeOccurred</parents>
			<probabilities>0.8 0.2 0.09999999999999998 0.9</probabilities>
		</cpt>
		<cpt id="attack_operator_d908dbfe_4518__attack_operator_d908dbfe">
			<state id="False" />
			<state id="True" />
			<parents>Local_Data_is_Encrypted_attack_action_0f3f233c</parents>
			<probabilities>0.8 0.2 0.09999999999999998 0.9</probabilities>
		</cpt>
		<cpt id="Push_Malicious_Firmware_Update_attack_action_b94fa2a2">
			<state id="False" />
			<state id="True" />
			<parents>ExampleAttackTreeOccurred</parents>
			<probabilities>0.8 0.2 0.09999999999999998 0.9</probabilities>
		</cpt>
		<cpt id="attack_operator_1c6c2cdd_ebbe__attack_operator_1c6c2cdd">
			<state id="False" />
			<state id="True" />
			<parents>Push_Malicious_Firmware_Update_attack_action_b94fa2a2</parents>
			<probabilities>0.8 0.2 0.09999999999999998 0.9</probabilities>
		</cpt>
		<cpt id="Device_Data_Is_Unencrypted_attack_action_ec135ca7">
			<state id="False" />
			<state id="True" />
			<parents>ExampleAttackTreeOccurred</parents>
			<probabilities>0.8 0.2 0.09999999999999998 0.9</probabilities>
		</cpt>
		<cpt id="attack_operator_16805ea6_27ac__attack_operator_16805ea6">
			<state id="False" />
			<state id="True" />
			<parents>Device_Data_Is_Unencrypted_attack_action_ec135ca7</parents>
			<probabilities>0.8 0.2 0.09999999999999998 0.9</probabilities>
		</cpt>
		<cpt id="Disable_Authentication_attack_action_87dca2ec">
			<state id="False" />
			<state id="True" />
			<parents>ExampleAttackTreeOccurred</parents>
			<probabilities>0.8 0.2 0.09999999999999998 0.9</probabilities>
		</cpt>
		<cpt id="Disable_Encryption_attack_action_0f2a453c">
			<state id="False" />
			<state id="True" />
			<parents>ExampleAttackTreeOccurred</parents>
			<probabilities>0.8 0.2 0.09999999999999998 0.9</probabilities>
		</cpt>
		<cpt id="attack_operator_f4373071_24c9__attack_operator_f4373071">
			<state id="False" />
			<state id="True" />
			<parents>Disable_Authentication_attack_action_87dca2ec Disable_Encryption_attack_action_0f2a453c</parents>
			<probabilities>0.8 0.2 0.09999999999999998 0.9 0.09999999999999998 0.9 0.09999999999999998 0.9</probabilities>
		</cpt>
		<cpt id="Re_Associate_Device_To_Control_attack_action_be373544">
			<state id="False" />
			<state id="True" />
			<parents>ExampleAttackTreeOccurred</parents>
			<probabilities>0.8 0.2 0.09999999999999998 0.9</probabilities>
		</cpt>
		<cpt id="attack_operator_341a85ab_69d4__attack_operator_341a85ab">
			<state id="False" />
			<state id="True" />
			<parents>Re_Associate_Device_To_Control_attack_action_be373544</parents>
			<probabilities>0.8 0.2 0.09999999999999998 0.9</probabilities>
		</cpt>
		<cpt id="Replace_Tracker_After_Firmware_attack_action_fe72b1b9">
			<state id="False" />
			<state id="True" />
			<parents>ExampleAttackTreeOccurred</parents>
			<probabilities>0.8 0.2 0.09999999999999998 0.9</probabilities>
		</cpt>
		<cpt id="Steal_Tracker_attack_action_5f9f61a9">
			<state id="False" />
			<state id="True" />
			<parents>ExampleAttackTreeOccurred</parents>
			<probabilities>0.8 0.2 0.09999999999999998 0.9</probabilities>
		</cpt>
		<cpt id="attack_operator_8cda965c_9868__attack_operator_8cda965c">
			<state id="False" />
			<state id="True" />
			<parents>Replace_Tracker_After_Firmware_attack_action_fe72b1b9 Steal_Tracker_attack_action_5f9f61a9</parents>
			<probabilities>0.8 0.2 0.09999999999999998 0.9 0.09999999999999998 0.9 0.09999999999999998 0.9</probabilities>
		</cpt>
		<cpt id="Browser_Session_Hijacking_attack_action_37b85046">
			<state id="False" />
			<state id="True" />
			<parents>ExampleAttackTreeOccurred</parents>
			<probabilities>0.8 0.2 0.09999999999999998 0.9</probabilities>
		</cpt>
		<cpt id="Downloading_Manipulated_Browse_attack_action_643f38b0">
			<state id="False" />
			<state id="True" />
			<parents>ExampleAttackTreeOccurred</parents>
			<probabilities>0.8 0.2 0.09999999999999998 0.9</probabilities>
		</cpt>
		<cpt id="attack_operator_ddeb6e7b_5992__attack_operator_ddeb6e7b">
			<state id="False" />
			<state id="True" />
			<parents>Browser_Session_Hijacking_attack_action_37b85046 Downloading_Manipulated_Browse_attack_action_643f38b0</parents>
			<probabilities>0.8 0.2 0.09999999999999998 0.9 0.09999999999999998 0.9 0.09999999999999998 0.9</probabilities>
		</cpt>
	</nodes>
	<extensions>
		<genie version="1.0" app="SMILE_ACADEMIC 2.4.0@070aab1774fd" name="Unnamed">
			<node id="ExampleAttackTreeOccurred">
				<name>ExampleAttackTreeOccurred</name>
				<interior color="e5f6f7" />
				<outline color="0000bb" />
				<font color="000000" name="MS Sans Serif" size="8" />
				<position>-38 -18 38 18</position>
			</node>
			<node id="Purchase_Dataset_Containing_Us_attack_action_32234997">
				<name>Purchase_Dataset_Containing_Us_attack_action_32234997</name>
				<interior color="e5f6f7" />
				<outline color="0000bb" />
				<font color="000000" name="MS Sans Serif" size="8" />
				<position>-38 -18 38 18</position>
			</node>
			<node id="attack_operator_55c18a7c_69a0__attack_operator_55c18a7c">
				<name>attack_operator_55c18a7c_69a0__attack_operator_55c18a7c</name>
				<interior color="e5f6f7" />
				<outline color="0000bb" />
				<font color="000000" name="MS Sans Serif" size="8" />
				<position>-38 -18 38 18</position>
			</node>
			<node id="Find_a_Free_Copy_of_the_Datase_attack_action_2d7c7f99">
				<name>Find_a_Free_Copy_of_the_Datase_attack_action_2d7c7f99</name>
				<interior color="e5f6f7" />
				<outline color="0000bb" />
				<font color="000000" name="MS Sans Serif" size="8" />
				<position>-38 -18 38 18</position>
			</node>
			<node id="Synthesize_Known_User_Data_and_attack_action_ba3f0f10">
				<name>Synthesize_Known_User_Data_and_attack_action_ba3f0f10</name>
				<interior color="e5f6f7" />
				<outline color="0000bb" />
				<font color="000000" name="MS Sans Serif" size="8" />
				<position>-38 -18 38 18</position>
			</node>
			<node id="attack_operator_7cf24d0d_f1bf__attack_operator_7cf24d0d">
				<name>attack_operator_7cf24d0d_f1bf__attack_operator_7cf24d0d</name>
				<interior color="e5f6f7" />
				<outline color="0000bb" />
				<font color="000000" name="MS Sans Serif" size="8" />
				<position>-38 -18 38 18</position>
			</node>
			<node id="Compile_Known_User_Data_attack_action_2867ece0">
				<name>Compile_Known_User_Data_attack_action_2867ece0</name>
				<interior color="e5f6f7" />
				<outline color="0000bb" />
				<font color="000000" name="MS Sans Serif" size="8" />
				<position>-38 -18 38 18</position>
			</node>
			<node id="Acquire_User_Credentials_From__attack_action_d3a9b4b8">
				<name>Acquire_User_Credentials_From__attack_action_d3a9b4b8</name>
				<interior color="e5f6f7" />
				<outline color="0000bb" />
				<font color="000000" name="MS Sans Serif" size="8" />
				<position>-38 -18 38 18</position>
			</node>
			<node id="attack_operator_92eb629c_d257__attack_operator_92eb629c">
				<name>attack_operator_92eb629c_d257__attack_operator_92eb629c</name>
				<interior color="e5f6f7" />
				<outline color="0000bb" />
				<font color="000000" name="MS Sans Serif" size="8" />
				<position>-38 -18 38 18</position>
			</node>
			<node id="Purchase_User_Credentials_attack_action_4fab276c">
				<name>Purchase_User_Credentials_attack_action_4fab276c</name>
				<interior color="e5f6f7" />
				<outline color="0000bb" />
				<font color="000000" name="MS Sans Serif" size="8" />
				<position>-38 -18 38 18</position>
			</node>
			<node id="Record_User_Login_Information_attack_action_e5f3487d">
				<name>Record_User_Login_Information_attack_action_e5f3487d</name>
				<interior color="e5f6f7" />
				<outline color="0000bb" />
				<font color="000000" name="MS Sans Serif" size="8" />
				<position>-38 -18 38 18</position>
			</node>
			<node id="attack_operator_bb5ec01a_10e9__attack_operator_bb5ec01a">
				<name>attack_operator_bb5ec01a_10e9__attack_operator_bb5ec01a</name>
				<interior color="e5f6f7" />
				<outline color="0000bb" />
				<font color="000000" name="MS Sans Serif" size="8" />
				<position>-38 -18 38 18</position>
			</node>
			<node id="Prompt_User_for_Login_Informat_attack_action_eda0131b">
				<name>Prompt_User_for_Login_Informat_attack_action_eda0131b</name>
				<interior color="e5f6f7" />
				<outline color="0000bb" />
				<font color="000000" name="MS Sans Serif" size="8" />
				<position>-38 -18 38 18</position>
			</node>
			<node id="attack_operator_567d1a9c_069b__attack_operator_567d1a9c">
				<name>attack_operator_567d1a9c_069b__attack_operator_567d1a9c</name>
				<interior color="e5f6f7" />
				<outline color="0000bb" />
				<font color="000000" name="MS Sans Serif" size="8" />
				<position>-38 -18 38 18</position>
			</node>
			<node id="User_Interacts_With_Malicious__attack_action_f6e15450">
				<name>User_Interacts_With_Malicious__attack_action_f6e15450</name>
				<interior color="e5f6f7" />
				<outline color="0000bb" />
				<font color="000000" name="MS Sans Serif" size="8" />
				<position>-38 -18 38 18</position>
			</node>
			<node id="attack_operator_212e23fe_c04f__attack_operator_212e23fe">
				<name>attack_operator_212e23fe_c04f__attack_operator_212e23fe</name>
				<interior color="e5f6f7" />
				<outline color="0000bb" />
				<font color="000000" name="MS Sans Serif" size="8" />
				<position>-38 -18 38 18</position>
			</node>
			<node id="Determine_Approximate_Location_attack_action_89bfd82d">
				<name>Determine_Approximate_Location_attack_action_89bfd82d</name>
				<interior color="e5f6f7" />
				<outline color="0000bb" />
				<font color="000000" name="MS Sans Serif" size="8" />
				<position>-38 -18 38 18</position>
			</node>
			<node id="attack_operator_e51fb8f0_ee0f__attack_operator_e51fb8f0">
				<name>attack_operator_e51fb8f0_ee0f__attack_operator_e51fb8f0</name>
				<interior color="e5f6f7" />
				<outline color="0000bb" />
				<font color="000000" name="MS Sans Serif" size="8" />
				<position>-38 -18 38 18</position>
			</node>
			<node id="Learn_Tracker_Serial_Number_attack_action_84217add">
				<name>Learn_Tracker_Serial_Number_attack_action_84217add</name>
				<interior color="e5f6f7" />
				<outline color="0000bb" />
				<font color="000000" name="MS Sans Serif" size="8" />
				<position>-38 -18 38 18</position>
			</node>
			<node id="attack_operator_e8cff81f_61a2__attack_operator_e8cff81f">
				<name>attack_operator_e8cff81f_61a2__attack_operator_e8cff81f</name>
				<interior color="e5f6f7" />
				<outline color="0000bb" />
				<font color="000000" name="MS Sans Serif" size="8" />
				<position>-38 -18 38 18</position>
			</node>
			<node id="Eavesdrop_on_Device_Communicat_attack_action_6bdf557c">
				<name>Eavesdrop_on_Device_Communicat_attack_action_6bdf557c</name>
				<interior color="e5f6f7" />
				<outline color="0000bb" />
				<font color="000000" name="MS Sans Serif" size="8" />
				<position>-38 -18 38 18</position>
			</node>
			<node id="attack_operator_bab5422f_0bdb__attack_operator_bab5422f">
				<name>attack_operator_bab5422f_0bdb__attack_operator_bab5422f</name>
				<interior color="e5f6f7" />
				<outline color="0000bb" />
				<font color="000000" name="MS Sans Serif" size="8" />
				<position>-38 -18 38 18</position>
			</node>
			<node id="Get_Within_Wireless_Range_of_t_attack_action_8df074e4">
				<name>Get_Within_Wireless_Range_of_t_attack_action_8df074e4</name>
				<interior color="e5f6f7" />
				<outline color="0000bb" />
				<font color="000000" name="MS Sans Serif" size="8" />
				<position>-38 -18 38 18</position>
			</node>
			<node id="Configure_an_Alternative_Serve_attack_action_e5ddaf28">
				<name>Configure_an_Alternative_Serve_attack_action_e5ddaf28</name>
				<interior color="e5f6f7" />
				<outline color="0000bb" />
				<font color="000000" name="MS Sans Serif" size="8" />
				<position>-38 -18 38 18</position>
			</node>
			<node id="attack_operator_47cbb476_bb10__attack_operator_47cbb476">
				<name>attack_operator_47cbb476_bb10__attack_operator_47cbb476</name>
				<interior color="e5f6f7" />
				<outline color="0000bb" />
				<font color="000000" name="MS Sans Serif" size="8" />
				<position>-38 -18 38 18</position>
			</node>
			<node id="Associate_Tracker_With_a_Contr_attack_action_8f7c3f72">
				<name>Associate_Tracker_With_a_Contr_attack_action_8f7c3f72</name>
				<interior color="e5f6f7" />
				<outline color="0000bb" />
				<font color="000000" name="MS Sans Serif" size="8" />
				<position>-38 -18 38 18</position>
			</node>
			<node id="Replay_Authentication_Sequence_attack_action_6bd52eec">
				<name>Replay_Authentication_Sequence_attack_action_6bd52eec</name>
				<interior color="e5f6f7" />
				<outline color="0000bb" />
				<font color="000000" name="MS Sans Serif" size="8" />
				<position>-38 -18 38 18</position>
			</node>
			<node id="attack_operator_70120336_4ff9__attack_operator_70120336">
				<name>attack_operator_70120336_4ff9__attack_operator_70120336</name>
				<interior color="e5f6f7" />
				<outline color="0000bb" />
				<font color="000000" name="MS Sans Serif" size="8" />
				<position>-38 -18 38 18</position>
			</node>
			<node id="Get_Within_Wireless_Range_of_t_attack_action_9cf8b16c">
				<name>Get_Within_Wireless_Range_of_t_attack_action_9cf8b16c</name>
				<interior color="e5f6f7" />
				<outline color="0000bb" />
				<font color="000000" name="MS Sans Serif" size="8" />
				<position>-38 -18 38 18</position>
			</node>
			<node id="attack_operator_c20eb04a_ffa7__attack_operator_c20eb04a">
				<name>attack_operator_c20eb04a_ffa7__attack_operator_c20eb04a</name>
				<interior color="e5f6f7" />
				<outline color="0000bb" />
				<font color="000000" name="MS Sans Serif" size="8" />
				<position>-38 -18 38 18</position>
			</node>
			<node id="Associate_Data_with_Unique_Dev_attack_action_2af74e9a">
				<name>Associate_Data_with_Unique_Dev_attack_action_2af74e9a</name>
				<interior color="e5f6f7" />
				<outline color="0000bb" />
				<font color="000000" name="MS Sans Serif" size="8" />
				<position>-38 -18 38 18</position>
			</node>
			<node id="attack_operator_a8c00ec1_1a8d__attack_operator_a8c00ec1">
				<name>attack_operator_a8c00ec1_1a8d__attack_operator_a8c00ec1</name>
				<interior color="e5f6f7" />
				<outline color="0000bb" />
				<font color="000000" name="MS Sans Serif" size="8" />
				<position>-38 -18 38 18</position>
			</node>
			<node id="Trigger_Synchronization_Over_B_attack_action_8f2b5ae8">
				<name>Trigger_Synchronization_Over_B_attack_action_8f2b5ae8</name>
				<interior color="e5f6f7" />
				<outline color="0000bb" />
				<font color="000000" name="MS Sans Serif" size="8" />
				<position>-38 -18 38 18</position>
			</node>
			<node id="attack_operator_bd09a07e_82f1__attack_operator_bd09a07e">
				<name>attack_operator_bd09a07e_82f1__attack_operator_bd09a07e</name>
				<interior color="e5f6f7" />
				<outline color="0000bb" />
				<font color="000000" name="MS Sans Serif" size="8" />
				<position>-38 -18 38 18</position>
			</node>
			<node id="Local_Data_is_Encrypted_attack_action_0f3f233c">
				<name>Local_Data_is_Encrypted_attack_action_0f3f233c</name>
				<interior color="e5f6f7" />
				<outline color="0000bb" />
				<font color="000000" name="MS Sans Serif" size="8" />
				<position>-38 -18 38 18</position>
			</node>
			<node id="attack_operator_d908dbfe_4518__attack_operator_d908dbfe">
				<name>attack_operator_d908dbfe_4518__attack_operator_d908dbfe</name>
				<interior color="e5f6f7" />
				<outline color="0000bb" />
				<font color="000000" name="MS Sans Serif" size="8" />
				<position>-38 -18 38 18</position>
			</node>
			<node id="Push_Malicious_Firmware_Update_attack_action_b94fa2a2">
				<name>Push_Malicious_Firmware_Update_attack_action_b94fa2a2</name>
				<interior color="e5f6f7" />
				<outline color="0000bb" />
				<font color="000000" name="MS Sans Serif" size="8" />
				<position>-38 -18 38 18</position>
			</node>
			<node id="attack_operator_1c6c2cdd_ebbe__attack_operator_1c6c2cdd">
				<name>attack_operator_1c6c2cdd_ebbe__attack_operator_1c6c2cdd</name>
				<interior color="e5f6f7" />
				<outline color="0000bb" />
				<font color="000000" name="MS Sans Serif" size="8" />
				<position>-38 -18 38 18</position>
			</node>
			<node id="Device_Data_Is_Unencrypted_attack_action_ec135ca7">
				<name>Device_Data_Is_Unencrypted_attack_action_ec135ca7</name>
				<interior color="e5f6f7" />
				<outline color="0000bb" />
				<font color="000000" name="MS Sans Serif" size="8" />
				<position>-38 -18 38 18</position>
			</node>
			<node id="attack_operator_16805ea6_27ac__attack_operator_16805ea6">
				<name>attack_operator_16805ea6_27ac__attack_operator_16805ea6</name>
				<interior color="e5f6f7" />
				<outline color="0000bb" />
				<font color="000000" name="MS Sans Serif" size="8" />
				<position>-38 -18 38 18</position>
			</node>
			<node id="Disable_Authentication_attack_action_87dca2ec">
				<name>Disable_Authentication_attack_action_87dca2ec</name>
				<interior color="e5f6f7" />
				<outline color="0000bb" />
				<font color="000000" name="MS Sans Serif" size="8" />
				<position>-38 -18 38 18</position>
			</node>
			<node id="attack_operator_f4373071_24c9__attack_operator_f4373071">
				<name>attack_operator_f4373071_24c9__attack_operator_f4373071</name>
				<interior color="e5f6f7" />
				<outline color="0000bb" />
				<font color="000000" name="MS Sans Serif" size="8" />
				<position>-38 -18 38 18</position>
			</node>
			<node id="Re_Associate_Device_To_Control_attack_action_be373544">
				<name>Re_Associate_Device_To_Control_attack_action_be373544</name>
				<interior color="e5f6f7" />
				<outline color="0000bb" />
				<font color="000000" name="MS Sans Serif" size="8" />
				<position>-38 -18 38 18</position>
			</node>
			<node id="attack_operator_341a85ab_69d4__attack_operator_341a85ab">
				<name>attack_operator_341a85ab_69d4__attack_operator_341a85ab</name>
				<interior color="e5f6f7" />
				<outline color="0000bb" />
				<font color="000000" name="MS Sans Serif" size="8" />
				<position>-38 -18 38 18</position>
			</node>
			<node id="Replace_Tracker_After_Firmware_attack_action_fe72b1b9">
				<name>Replace_Tracker_After_Firmware_attack_action_fe72b1b9</name>
				<interior color="e5f6f7" />
				<outline color="0000bb" />
				<font color="000000" name="MS Sans Serif" size="8" />
				<position>-38 -18 38 18</position>
			</node>
			<node id="attack_operator_8cda965c_9868__attack_operator_8cda965c">
				<name>attack_operator_8cda965c_9868__attack_operator_8cda965c</name>
				<interior color="e5f6f7" />
				<outline color="0000bb" />
				<font color="000000" name="MS Sans Serif" size="8" />
				<position>-38 -18 38 18</position>
			</node>
			<node id="Steal_Tracker_attack_action_5f9f61a9">
				<name>Steal_Tracker_attack_action_5f9f61a9</name>
				<interior color="e5f6f7" />
				<outline color="0000bb" />
				<font color="000000" name="MS Sans Serif" size="8" />
				<position>-38 -18 38 18</position>
			</node>
			<node id="Disable_Encryption_attack_action_0f2a453c">
				<name>Disable_Encryption_attack_action_0f2a453c</name>
				<interior color="e5f6f7" />
				<outline color="0000bb" />
				<font color="000000" name="MS Sans Serif" size="8" />
				<position>-38 -18 38 18</position>
			</node>
			<node id="Browser_Session_Hijacking_attack_action_37b85046">
				<name>Browser_Session_Hijacking_attack_action_37b85046</name>
				<interior color="e5f6f7" />
				<outline color="0000bb" />
				<font color="000000" name="MS Sans Serif" size="8" />
				<position>-38 -18 38 18</position>
			</node>
			<node id="attack_operator_ddeb6e7b_5992__attack_operator_ddeb6e7b">
				<name>attack_operator_ddeb6e7b_5992__attack_operator_ddeb6e7b</name>
				<interior color="e5f6f7" />
				<outline color="0000bb" />
				<font color="000000" name="MS Sans Serif" size="8" />
				<position>-38 -18 38 18</position>
			</node>
			<node id="Downloading_Manipulated_Browse_attack_action_643f38b0">
				<name>Downloading_Manipulated_Browse_attack_action_643f38b0</name>
				<interior color="e5f6f7" />
				<outline color="0000bb" />
				<font color="000000" name="MS Sans Serif" size="8" />
				<position>-38 -18 38 18</position>
			</node>
		</genie>
	</extensions>
</smile>
