<?xml version="1.0" encoding="UTF-8"?>
<!-- This file was created by ACADEMIC version of SMILE -->
<smile version="1.0" id="Unnamed" numsamples="10000" discsamples="10000">
	<nodes>
		<cpt id="IvantiVulnerabilitiesOccurred">
			<state id="False" />
			<state id="True" />
			<probabilities>0.5 0.5</probabilities>
		</cpt>
		<cpt id="Exploit_Public_Facing_Applicat_attack_action_31a53687">
			<state id="False" />
			<state id="True" />
			<parents>IvantiVulnerabilitiesOccurred</parents>
			<probabilities>0.8 0.2 0.09999999999999998 0.9</probabilities>
		</cpt>
		<cpt id="Clear_Linux_or_Mac_System_Logs_attack_action_f3ecd4a2">
			<state id="False" />
			<state id="True" />
			<parents>Exploit_Public_Facing_Applicat_attack_action_31a53687</parents>
			<probabilities>0.8 0.2 0.09999999999999998 0.9</probabilities>
		</cpt>
		<cpt id="Impair_Defenses_attack_action_aed98895">
			<state id="False" />
			<state id="True" />
			<parents>Exploit_Public_Facing_Applicat_attack_action_31a53687</parents>
			<probabilities>0.8 0.2 0.09999999999999998 0.9</probabilities>
		</cpt>
		<cpt id="Client_Configurations_attack_action_7dd03660">
			<state id="False" />
			<state id="True" />
			<parents>Exploit_Public_Facing_Applicat_attack_action_31a53687</parents>
			<probabilities>0.8 0.2 0.09999999999999998 0.9</probabilities>
		</cpt>
		<cpt id="Command_and_Control_attack_action_ba3cc611">
			<state id="False" />
			<state id="True" />
			<parents>Exploit_Public_Facing_Applicat_attack_action_31a53687</parents>
			<probabilities>0.8 0.2 0.09999999999999998 0.9</probabilities>
		</cpt>
		<cpt id="Compromise_Host_Software_Binar_attack_action_06fe9325">
			<state id="False" />
			<state id="True" />
			<parents>Exploit_Public_Facing_Applicat_attack_action_31a53687</parents>
			<probabilities>0.8 0.2 0.09999999999999998 0.9</probabilities>
		</cpt>
		<cpt id="Defense_Evasion_attack_action_62ff669d">
			<state id="False" />
			<state id="True" />
			<parents>Compromise_Host_Software_Binar_attack_action_06fe9325</parents>
			<probabilities>0.8 0.2 0.09999999999999998 0.9</probabilities>
		</cpt>
		<cpt id="Compromise_Host_Software_Binar_attack_action_9215e2af">
			<state id="False" />
			<state id="True" />
			<parents>Exploit_Public_Facing_Applicat_attack_action_31a53687</parents>
			<probabilities>0.8 0.2 0.09999999999999998 0.9</probabilities>
		</cpt>
		<cpt id="Web_Portal_Capture_attack_action_33d36b98">
			<state id="False" />
			<state id="True" />
			<parents>Compromise_Host_Software_Binar_attack_action_9215e2af</parents>
			<probabilities>0.8 0.2 0.09999999999999998 0.9</probabilities>
		</cpt>
		<cpt id="Remote_Desktop_Protocol_attack_action_12d166be">
			<state id="False" />
			<state id="True" />
			<parents>Web_Portal_Capture_attack_action_33d36b98</parents>
			<probabilities>0.8 0.2 0.09999999999999998 0.9</probabilities>
		</cpt>
		<cpt id="Credentials_in_Registry_attack_action_088f16ed">
			<state id="False" />
			<state id="True" />
			<parents>Remote_Desktop_Protocol_attack_action_12d166be</parents>
			<probabilities>0.8 0.2 0.09999999999999998 0.9</probabilities>
		</cpt>
		<cpt id="Reconnaissance_attack_action_9606315b">
			<state id="False" />
			<state id="True" />
			<parents>Remote_Desktop_Protocol_attack_action_12d166be</parents>
			<probabilities>0.8 0.2 0.09999999999999998 0.9</probabilities>
		</cpt>
		<cpt id="NTDS_attack_action_55140b59">
			<state id="False" />
			<state id="True" />
			<parents>Reconnaissance_attack_action_9606315b</parents>
			<probabilities>0.8 0.2 0.09999999999999998 0.9</probabilities>
		</cpt>
		<cpt id="Archive_via_Utility_attack_action_9bd0a0d1">
			<state id="False" />
			<state id="True" />
			<parents>NTDS_attack_action_55140b59</parents>
			<probabilities>0.8 0.2 0.09999999999999998 0.9</probabilities>
		</cpt>
		<cpt id="LSASS_Memory_attack_action_896b159a">
			<state id="False" />
			<state id="True" />
			<parents>Remote_Desktop_Protocol_attack_action_12d166be</parents>
			<probabilities>0.8 0.2 0.09999999999999998 0.9</probabilities>
		</cpt>
		<cpt id="Persistence_attack_action_a3954799">
			<state id="False" />
			<state id="True" />
			<parents>Web_Portal_Capture_attack_action_33d36b98</parents>
			<probabilities>0.8 0.2 0.09999999999999998 0.9</probabilities>
		</cpt>
		<cpt id="Internal_Proxy_attack_action_a5077335">
			<state id="False" />
			<state id="True" />
			<parents>Persistence_attack_action_a3954799</parents>
			<probabilities>0.8 0.2 0.09999999999999998 0.9</probabilities>
		</cpt>
		<cpt id="Internal_Proxy_attack_action_5e630b44">
			<state id="False" />
			<state id="True" />
			<parents>Internal_Proxy_attack_action_a5077335</parents>
			<probabilities>0.8 0.2 0.09999999999999998 0.9</probabilities>
		</cpt>
		<cpt id="System_Location_Discovery_attack_action_3b7d1c0f">
			<state id="False" />
			<state id="True" />
			<parents>Exploit_Public_Facing_Applicat_attack_action_31a53687</parents>
			<probabilities>0.8 0.2 0.09999999999999998 0.9</probabilities>
		</cpt>
		<cpt id="Compromise_Host_Software_Binar_attack_action_74055752">
			<state id="False" />
			<state id="True" />
			<parents>Exploit_Public_Facing_Applicat_attack_action_31a53687</parents>
			<probabilities>0.8 0.2 0.09999999999999998 0.9</probabilities>
		</cpt>
	</nodes>
	<extensions>
		<genie version="1.0" app="SMILE_ACADEMIC 2.4.0@070aab1774fd" name="Unnamed">
			<node id="IvantiVulnerabilitiesOccurred">
				<name>IvantiVulnerabilitiesOccurred</name>
				<interior color="e5f6f7" />
				<outline color="0000bb" />
				<font color="000000" name="MS Sans Serif" size="8" />
				<position>-38 -18 38 18</position>
			</node>
			<node id="Exploit_Public_Facing_Applicat_attack_action_31a53687">
				<name>Exploit_Public_Facing_Applicat_attack_action_31a53687</name>
				<interior color="e5f6f7" />
				<outline color="0000bb" />
				<font color="000000" name="MS Sans Serif" size="8" />
				<position>-38 -18 38 18</position>
			</node>
			<node id="Clear_Linux_or_Mac_System_Logs_attack_action_f3ecd4a2">
				<name>Clear_Linux_or_Mac_System_Logs_attack_action_f3ecd4a2</name>
				<interior color="e5f6f7" />
				<outline color="0000bb" />
				<font color="000000" name="MS Sans Serif" size="8" />
				<position>-38 -18 38 18</position>
			</node>
			<node id="Impair_Defenses_attack_action_aed98895">
				<name>Impair_Defenses_attack_action_aed98895</name>
				<interior color="e5f6f7" />
				<outline color="0000bb" />
				<font color="000000" name="MS Sans Serif" size="8" />
				<position>-38 -18 38 18</position>
			</node>
			<node id="Client_Configurations_attack_action_7dd03660">
				<name>Client_Configurations_attack_action_7dd03660</name>
				<interior color="e5f6f7" />
				<outline color="0000bb" />
				<font color="000000" name="MS Sans Serif" size="8" />
				<position>-38 -18 38 18</position>
			</node>
			<node id="Command_and_Control_attack_action_ba3cc611">
				<name>Command_and_Control_attack_action_ba3cc611</name>
				<interior color="e5f6f7" />
				<outline color="0000bb" />
				<font color="000000" name="MS Sans Serif" size="8" />
				<position>-38 -18 38 18</position>
			</node>
			<node id="Compromise_Host_Software_Binar_attack_action_06fe9325">
				<name>Compromise_Host_Software_Binar_attack_action_06fe9325</name>
				<interior color="e5f6f7" />
				<outline color="0000bb" />
				<font color="000000" name="MS Sans Serif" size="8" />
				<position>-38 -18 38 18</position>
			</node>
			<node id="Defense_Evasion_attack_action_62ff669d">
				<name>Defense_Evasion_attack_action_62ff669d</name>
				<interior color="e5f6f7" />
				<outline color="0000bb" />
				<font color="000000" name="MS Sans Serif" size="8" />
				<position>-38 -18 38 18</position>
			</node>
			<node id="Compromise_Host_Software_Binar_attack_action_9215e2af">
				<name>Compromise_Host_Software_Binar_attack_action_9215e2af</name>
				<interior color="e5f6f7" />
				<outline color="0000bb" />
				<font color="000000" name="MS Sans Serif" size="8" />
				<position>-38 -18 38 18</position>
			</node>
			<node id="Web_Portal_Capture_attack_action_33d36b98">
				<name>Web_Portal_Capture_attack_action_33d36b98</name>
				<interior color="e5f6f7" />
				<outline color="0000bb" />
				<font color="000000" name="MS Sans Serif" size="8" />
				<position>-38 -18 38 18</position>
			</node>
			<node id="Remote_Desktop_Protocol_attack_action_12d166be">
				<name>Remote_Desktop_Protocol_attack_action_12d166be</name>
				<interior color="e5f6f7" />
				<outline color="0000bb" />
				<font color="000000" name="MS Sans Serif" size="8" />
				<position>-38 -18 38 18</position>
			</node>
			<node id="Credentials_in_Registry_attack_action_088f16ed">
				<name>Credentials_in_Registry_attack_action_088f16ed</name>
				<interior color="e5f6f7" />
				<outline color="0000bb" />
				<font color="000000" name="MS Sans Serif" size="8" />
				<position>-38 -18 38 18</position>
			</node>
			<node id="Reconnaissance_attack_action_9606315b">
				<name>Reconnaissance_attack_action_9606315b</name>
				<interior color="e5f6f7" />
				<outline color="0000bb" />
				<font color="000000" name="MS Sans Serif" size="8" />
				<position>-38 -18 38 18</position>
			</node>
			<node id="NTDS_attack_action_55140b59">
				<name>NTDS_attack_action_55140b59</name>
				<interior color="e5f6f7" />
				<outline color="0000bb" />
				<font color="000000" name="MS Sans Serif" size="8" />
				<position>-38 -18 38 18</position>
			</node>
			<node id="Archive_via_Utility_attack_action_9bd0a0d1">
				<name>Archive_via_Utility_attack_action_9bd0a0d1</name>
				<interior color="e5f6f7" />
				<outline color="0000bb" />
				<font color="000000" name="MS Sans Serif" size="8" />
				<position>-38 -18 38 18</position>
			</node>
			<node id="LSASS_Memory_attack_action_896b159a">
				<name>LSASS_Memory_attack_action_896b159a</name>
				<interior color="e5f6f7" />
				<outline color="0000bb" />
				<font color="000000" name="MS Sans Serif" size="8" />
				<position>-38 -18 38 18</position>
			</node>
			<node id="Persistence_attack_action_a3954799">
				<name>Persistence_attack_action_a3954799</name>
				<interior color="e5f6f7" />
				<outline color="0000bb" />
				<font color="000000" name="MS Sans Serif" size="8" />
				<position>-38 -18 38 18</position>
			</node>
			<node id="Internal_Proxy_attack_action_a5077335">
				<name>Internal_Proxy_attack_action_a5077335</name>
				<interior color="e5f6f7" />
				<outline color="0000bb" />
				<font color="000000" name="MS Sans Serif" size="8" />
				<position>-38 -18 38 18</position>
			</node>
			<node id="Internal_Proxy_attack_action_5e630b44">
				<name>Internal_Proxy_attack_action_5e630b44</name>
				<interior color="e5f6f7" />
				<outline color="0000bb" />
				<font color="000000" name="MS Sans Serif" size="8" />
				<position>-38 -18 38 18</position>
			</node>
			<node id="System_Location_Discovery_attack_action_3b7d1c0f">
				<name>System_Location_Discovery_attack_action_3b7d1c0f</name>
				<interior color="e5f6f7" />
				<outline color="0000bb" />
				<font color="000000" name="MS Sans Serif" size="8" />
				<position>-38 -18 38 18</position>
			</node>
			<node id="Compromise_Host_Software_Binar_attack_action_74055752">
				<name>Compromise_Host_Software_Binar_attack_action_74055752</name>
				<interior color="e5f6f7" />
				<outline color="0000bb" />
				<font color="000000" name="MS Sans Serif" size="8" />
				<position>-38 -18 38 18</position>
			</node>
		</genie>
	</extensions>
</smile>
